digraph Tree {
node [shape=box, style="filled, rounded", color="black", fontname=helvetica] ;
edge [fontname=helvetica] ;
0 [label=<x1 &le; 0.198<br/>entropy = 0.918<br/>samples = 96<br/>value = [32, 64]<br/>class =  >, fillcolor="#9ccef2"] ;
1 [label=<entropy = 0.0<br/>samples = 19<br/>value = [0, 19]<br/>class =  >, fillcolor="#399de5"] ;
0 -> 1 [labeldistance=2.5, labelangle=45, headlabel="True"] ;
2 [label=<x2 &le; 0.827<br/>entropy = 0.979<br/>samples = 77<br/>value = [32, 45]<br/>class =  >, fillcolor="#c6e3f7"] ;
0 -> 2 [labeldistance=2.5, labelangle=-45, headlabel="False"] ;
3 [label=<x1 &le; 0.816<br/>entropy = 0.999<br/>samples = 62<br/>value = [32, 30]<br/>class = 0>, fillcolor="#fdf7f3"] ;
2 -> 3 ;
4 [label=<x1 &le; 0.621<br/>entropy = 0.969<br/>samples = 53<br/>value = [32, 21]<br/>class = 0>, fillcolor="#f6d4bb"] ;
3 -> 4 ;
5 [label=<x2 &le; 0.43<br/>entropy = 0.995<br/>samples = 37<br/>value = [17, 20]<br/>class =  >, fillcolor="#e1f0fb"] ;
4 -> 5 ;
6 [label=<x1 &le; 0.599<br/>entropy = 0.371<br/>samples = 14<br/>value = [1, 13]<br/>class =  >, fillcolor="#48a5e7"] ;
5 -> 6 ;
7 [label=<entropy = 0.0<br/>samples = 13<br/>value = [0, 13]<br/>class =  >, fillcolor="#399de5"] ;
6 -> 7 ;
8 [label=<entropy = 0.0<br/>samples = 1<br/>value = [1, 0]<br/>class = 0>, fillcolor="#e58139"] ;
6 -> 8 ;
9 [label=<x1 &le; 0.424<br/>entropy = 0.887<br/>samples = 23<br/>value = [16, 7]<br/>class = 0>, fillcolor="#f0b890"] ;
5 -> 9 ;
10 [label=<entropy = 0.0<br/>samples = 16<br/>value = [16, 0]<br/>class = 0>, fillcolor="#e58139"] ;
9 -> 10 ;
11 [label=<entropy = 0.0<br/>samples = 7<br/>value = [0, 7]<br/>class =  >, fillcolor="#399de5"] ;
9 -> 11 ;
12 [label=<x2 &le; 0.135<br/>entropy = 0.337<br/>samples = 16<br/>value = [15, 1]<br/>class = 0>, fillcolor="#e78946"] ;
4 -> 12 ;
13 [label=<entropy = 0.0<br/>samples = 1<br/>value = [0, 1]<br/>class =  >, fillcolor="#399de5"] ;
12 -> 13 ;
14 [label=<entropy = 0.0<br/>samples = 15<br/>value = [15, 0]<br/>class = 0>, fillcolor="#e58139"] ;
12 -> 14 ;
15 [label=<entropy = 0.0<br/>samples = 9<br/>value = [0, 9]<br/>class =  >, fillcolor="#399de5"] ;
3 -> 15 ;
16 [label=<entropy = 0.0<br/>samples = 15<br/>value = [0, 15]<br/>class =  >, fillcolor="#399de5"] ;
2 -> 16 ;
}